digraph Tree {
node [shape=box, fontname="helvetica"] ;
edge [fontname="helvetica"] ;
0 [label="x[1] <= 1.452\nsquared_error = 0.045\nsamples = 23\nvalue = 0.21"] ;
1 [label="x[16] <= 0.452\nsquared_error = 0.042\nsamples = 21\nvalue = 0.187"] ;
0 -> 1 [labeldistance=2.5, labelangle=45, headlabel="True"] ;
2 [label="x[7] <= 0.308\nsquared_error = 0.054\nsamples = 15\nvalue = 0.221"] ;
1 -> 2 ;
3 [label="x[8] <= 1.452\nsquared_error = 0.034\nsamples = 9\nvalue = 0.164"] ;
2 -> 3 ;
4 [label="x[11] <= 0.997\nsquared_error = 0.033\nsamples = 7\nvalue = 0.118"] ;
3 -> 4 ;
5 [label="x[4] <= 1.452\nsquared_error = 0.005\nsamples = 4\nvalue = 0.054"] ;
4 -> 5 ;
6 [label="x[2] <= 2.785\nsquared_error = 0.0\nsamples = 2\nvalue = 0.02"] ;
5 -> 6 ;
7 [label="squared_error = 0.0\nsamples = 1\nvalue = 0.005"] ;
6 -> 7 ;
8 [label="squared_error = 0.0\nsamples = 1\nvalue = 0.035"] ;
6 -> 8 ;
9 [label="squared_error = 0.008\nsamples = 2\nvalue = 0.088"] ;
5 -> 9 ;
10 [label="x[21] <= -0.849\nsquared_error = 0.057\nsamples = 3\nvalue = 0.203"] ;
4 -> 10 ;
11 [label="x[20] <= 2.785\nsquared_error = 0.001\nsamples = 2\nvalue = 0.036"] ;
10 -> 11 ;
12 [label="squared_error = 0.0\nsamples = 1\nvalue = 0.006"] ;
11 -> 12 ;
13 [label="squared_error = 0.0\nsamples = 1\nvalue = 0.065"] ;
11 -> 13 ;
14 [label="squared_error = 0.0\nsamples = 1\nvalue = 0.539"] ;
10 -> 14 ;
15 [label="squared_error = 0.003\nsamples = 2\nvalue = 0.325"] ;
3 -> 15 ;
16 [label="x[17] <= 2.785\nsquared_error = 0.072\nsamples = 6\nvalue = 0.306"] ;
2 -> 16 ;
17 [label="x[13] <= -0.179\nsquared_error = 0.078\nsamples = 5\nvalue = 0.343"] ;
16 -> 17 ;
18 [label="squared_error = 0.0\nsamples = 1\nvalue = 0.418"] ;
17 -> 18 ;
19 [label="squared_error = 0.096\nsamples = 4\nvalue = 0.324"] ;
17 -> 19 ;
20 [label="squared_error = -0.0\nsamples = 1\nvalue = 0.121"] ;
16 -> 20 ;
21 [label="x[21] <= -0.849\nsquared_error = 0.002\nsamples = 6\nvalue = 0.103"] ;
1 -> 21 ;
22 [label="squared_error = 0.0\nsamples = 1\nvalue = 0.012"] ;
21 -> 22 ;
23 [label="x[10] <= 1.875\nsquared_error = 0.001\nsamples = 5\nvalue = 0.122"] ;
21 -> 23 ;
24 [label="squared_error = 0.001\nsamples = 3\nvalue = 0.129"] ;
23 -> 24 ;
25 [label="squared_error = 0.0\nsamples = 2\nvalue = 0.111"] ;
23 -> 25 ;
26 [label="x[16] <= 0.452\nsquared_error = 0.023\nsamples = 2\nvalue = 0.445"] ;
0 -> 26 [labeldistance=2.5, labelangle=-45, headlabel="False"] ;
27 [label="squared_error = 0.0\nsamples = 1\nvalue = 0.596"] ;
26 -> 27 ;
28 [label="squared_error = 0.0\nsamples = 1\nvalue = 0.295"] ;
26 -> 28 ;
}